<Root>
  <ActivationFunctions>
    <Fn id="0" name="Linear" prob="0.25" />
    <Fn id="1" name="BipolarSigmoid" prob="0.25" />
    <Fn id="2" name="Gaussian" prob="0.25" />
    <Fn id="3" name="Sine" prob="0.25" />
  </ActivationFunctions>
  <Networks>
    <Network id="90547" birthGen="629" fitness="10.202407952351129">
      <Nodes>
        <Node type="bias" id="0" />
        <Node type="in" id="1" />
        <Node type="in" id="2" />
        <Node type="in" id="3" />
        <Node type="in" id="4" />
        <Node type="in" id="5" />
        <Node type="in" id="6" />
        <Node type="out" id="7" />
        <Node type="hid" id="97" />
        <Node type="hid" id="273" />
        <Node type="hid" id="684" />
        <Node type="hid" id="955" />
        <Node type="hid" id="1030" />
        <Node type="hid" id="1106" />
      </Nodes>
      <Connections>
        <Con id="11" src="3" tgt="7" wght="-4.9333622474440935" />
        <Con id="15" src="1" tgt="7" wght="-3.4721428162642067" />
        <Con id="274" src="5" tgt="273" wght="-1.9353648395796026" />
        <Con id="275" src="273" tgt="97" wght="2.19008237587288" />
        <Con id="685" src="5" tgt="684" wght="-1.6899246585623349" />
        <Con id="686" src="684" tgt="7" wght="-4.9794401698095641" />
        <Con id="956" src="273" tgt="955" wght="1.0762088123570404" />
        <Con id="957" src="955" tgt="97" wght="2.6787327871541229" />
        <Con id="1031" src="97" tgt="1030" wght="1.389508736593849" />
        <Con id="1107" src="1030" tgt="1106" wght="-2.5703565686311256" />
        <Con id="1108" src="1106" tgt="7" wght="0.91142544145426385" />
        <Con id="1175" src="2" tgt="1106" wght="0.13866063303394882" />
      </Connections>
    </Network>
  </Networks>
</Root>