<Root>
  <ActivationFunctions>
    <Fn id="0" name="Linear" prob="0.25" />
    <Fn id="1" name="BipolarSigmoid" prob="0.25" />
    <Fn id="2" name="Gaussian" prob="0.25" />
    <Fn id="3" name="Sine" prob="0.25" />
  </ActivationFunctions>
  <Networks>
    <Network id="11535" birthGen="80" fitness="6.1459276975046668">
      <Nodes>
        <Node type="bias" id="0" />
        <Node type="in" id="1" />
        <Node type="in" id="2" />
        <Node type="in" id="3" />
        <Node type="in" id="4" />
        <Node type="in" id="5" />
        <Node type="in" id="6" />
        <Node type="out" id="7" />
        <Node type="out" id="8" />
      </Nodes>
      <Connections>
        <Con id="15" src="3" tgt="7" wght="-1.3647715969419558" />
        <Con id="32" src="6" tgt="8" wght="1.2903712283576561" />
        <Con id="33" src="5" tgt="7" wght="-2.9669266225201261" />
        <Con id="34" src="1" tgt="7" wght="-2.7820869653741491" />
        <Con id="43" src="0" tgt="8" wght="4.98962273592172" />
        <Con id="114" src="4" tgt="8" wght="-2.8451027770857062" />
      </Connections>
    </Network>
  </Networks>
</Root>