<Root>
  <ActivationFunctions>
    <Fn id="0" name="SteepenedSigmoid" prob="1" />
  </ActivationFunctions>
  <Networks>
    <Network id="42902" birthGen="962" fitness="120.40945293063028">
      <Nodes>
        <Node type="bias" id="0" />
        <Node type="in" id="1" />
        <Node type="in" id="2" />
        <Node type="in" id="3" />
        <Node type="in" id="4" />
        <Node type="in" id="5" />
        <Node type="in" id="6" />
        <Node type="in" id="7" />
        <Node type="out" id="8" />
        <Node type="out" id="9" />
        <Node type="out" id="10" />
      </Nodes>
      <Connections>
        <Con id="19" src="2" tgt="10" wght="1.9574451688244039" />
        <Con id="26" src="5" tgt="8" wght="2.0708201194684852" />
        <Con id="40" src="7" tgt="9" wght="-4.1220244842962108" />
        <Con id="79" src="5" tgt="10" wght="3.00359716707222" />
        <Con id="86" src="4" tgt="8" wght="-0.85876923607391331" />
        <Con id="115" src="3" tgt="8" wght="0.454777462525012" />
        <Con id="155" src="6" tgt="9" wght="1.0411655241550983" />
      </Connections>
    </Network>
  </Networks>
</Root>